digraph Tree {
node [shape=box, style="filled, rounded", color="black", fontname="helvetica"] ;
edge [fontname="helvetica"] ;
0 [label="od280/od315_of_diluted_wines <= 0.375\ngini = 0.657\nsamples = 84\nvalue = [49, 43, 32]\nclass = class_0", fillcolor="#fdf6f0"] ;
1 [label="alcalinity_of_ash <= 0.343\ngini = 0.198\nsamples = 26\nvalue = [0, 4, 32]\nclass = class_2", fillcolor="#9152e8"] ;
0 -> 1 [labeldistance=2.5, labelangle=45, headlabel="True"] ;
2 [label="gini = 0.0\nsamples = 2\nvalue = [0, 3, 0]\nclass = class_1", fillcolor="#39e581"] ;
1 -> 2 ;
3 [label="proanthocyanins <= 0.372\ngini = 0.059\nsamples = 24\nvalue = [0, 1, 32]\nclass = class_2", fillcolor="#853fe6"] ;
1 -> 3 ;
4 [label="gini = 0.0\nsamples = 20\nvalue = [0, 0, 26]\nclass = class_2", fillcolor="#8139e5"] ;
3 -> 4 ;
5 [label="total_phenols <= 0.257\ngini = 0.245\nsamples = 4\nvalue = [0, 1, 6]\nclass = class_2", fillcolor="#965ae9"] ;
3 -> 5 ;
6 [label="gini = 0.0\nsamples = 1\nvalue = [0, 1, 0]\nclass = class_1", fillcolor="#39e581"] ;
5 -> 6 ;
7 [label="gini = 0.0\nsamples = 3\nvalue = [0, 0, 6]\nclass = class_2", fillcolor="#8139e5"] ;
5 -> 7 ;
8 [label="color_intensity <= 0.226\ngini = 0.494\nsamples = 58\nvalue = [49, 39, 0]\nclass = class_0", fillcolor="#fae5d7"] ;
0 -> 8 [labeldistance=2.5, labelangle=-45, headlabel="False"] ;
9 [label="flavanoids <= 0.491\ngini = 0.095\nsamples = 32\nvalue = [2, 38, 0]\nclass = class_1", fillcolor="#43e688"] ;
8 -> 9 ;
10 [label="gini = 0.0\nsamples = 24\nvalue = [0, 31, 0]\nclass = class_1", fillcolor="#39e581"] ;
9 -> 10 ;
11 [label="magnesium <= 0.31\ngini = 0.346\nsamples = 8\nvalue = [2, 7, 0]\nclass = class_1", fillcolor="#72eca5"] ;
9 -> 11 ;
12 [label="gini = 0.0\nsamples = 5\nvalue = [0, 6, 0]\nclass = class_1", fillcolor="#39e581"] ;
11 -> 12 ;
13 [label="total_phenols <= 0.684\ngini = 0.444\nsamples = 3\nvalue = [2, 1, 0]\nclass = class_0", fillcolor="#f2c09c"] ;
11 -> 13 ;
14 [label="gini = 0.0\nsamples = 2\nvalue = [2, 0, 0]\nclass = class_0", fillcolor="#e58139"] ;
13 -> 14 ;
15 [label="gini = 0.0\nsamples = 1\nvalue = [0, 1, 0]\nclass = class_1", fillcolor="#39e581"] ;
13 -> 15 ;
16 [label="ash <= 0.294\ngini = 0.041\nsamples = 26\nvalue = [47, 1, 0]\nclass = class_0", fillcolor="#e6843d"] ;
8 -> 16 ;
17 [label="gini = 0.0\nsamples = 1\nvalue = [0, 1, 0]\nclass = class_1", fillcolor="#39e581"] ;
16 -> 17 ;
18 [label="gini = 0.0\nsamples = 25\nvalue = [47, 0, 0]\nclass = class_0", fillcolor="#e58139"] ;
16 -> 18 ;
}